{
  "ip": 0,
  "fr": 60,
  "v": "5.1.20",
  "assets": [],
  "layers": [
    {
      "ty": 4,
      "nm": "Group 13",
      "ip": 0,
      "st": 0,
      "ind": 4,
      "hix": 4,
      "ks": {
        "o": {
          "a": 0,
          "k": 100
        },
        "or": {
          "a": 0,
          "k": [
            0,
            0,
            0
          ]
        },
        "a": {
          "a": 0,
          "k": [
            300.5,
            216,
            0
          ]
        },
        "p": {
          "s": true,
          "x": {
            "a": 0,
            "k": 100.00001499999999
          },
          "y": {
            "a": 0,
            "k": 75.00047999999998
          }
        },
        "rx": {
          "a": 0,
          "k": 0
        },
        "ry": {
          "a": 0,
          "k": 0
        },
        "rz": {
          "a": 0,
          "k": 0
        },
        "s": {
          "a": 0,
          "k": [
            33,
            33
          ]
        }
      },
      "shapes": [
        {
          "ty": "gr",
          "nm": "Group 13 shape group",
          "it": [
            {
              "ty": "sh",
              "ks": {
                "a": 0,
                "k": {
                  "c": true,
                  "v": [
                    [
                      102.847,
                      407.548
                    ],
                    [
                      56.2847,
                      408.962
                    ],
                    [
                      52.3764,
                      412.8
                    ],
                    [
                      55.7456,
                      417.177
                    ],
                    [
                      64.7077,
                      417.244
                    ],
                    [
                      103.184,
                      413.675
                    ],
                    [
                      108.305,
                      410.174
                    ],
                    [
                      102.78,
                      407.548
                    ]
                  ],
                  "i": [
                    [
                      0,
                      0
                    ],
                    [
                      15.565699999999993,
                      1.1440000000000055
                    ],
                    [
                      0.26960000000000406,
                      -2.2900000000000205
                    ],
                    [
                      -2.2236000000000047,
                      -0.27000000000003865
                    ],
                    [
                      -2.9649,
                      0
                    ],
                    [
                      -12.600899999999996,
                      3.298999999999978
                    ],
                    [
                      0.20199999999999818,
                      2.8950000000000387
                    ],
                    [
                      2.156000000000006,
                      0.26900000000000546
                    ]
                  ],
                  "o": [
                    [
                      -15.565699999999993,
                      -2.223000000000013
                    ],
                    [
                      -2.6953999999999994,
                      -0.20199999999999818
                    ],
                    [
                      -0.3369,
                      2.5579999999999927
                    ],
                    [
                      2.9649,
                      0.3359999999999559
                    ],
                    [
                      12.802899999999994,
                      -1.414000000000044
                    ],
                    [
                      2.2240000000000038,
                      -0.6059999999999945
                    ],
                    [
                      -0.13500000000000512,
                      -3.031000000000006
                    ],
                    [
                      0,
                      0
                    ]
                  ]
                }
              }
            },
            {
              "ty": "st",
              "o": {
                "a": 0,
                "k": 0
              },
              "w": {
                "a": 0,
                "k": 0
              },
              "c": {
                "a": 0,
                "k": [
                  0,
                  0,
                  0,
                  0
                ]
              },
              "lc": 3,
              "lj": 1
            },
            {
              "ty": "fl",
              "o": {
                "a": 0,
                "k": 100
              },
              "r": 1,
              "c": {
                "a": 0,
                "k": [
                  0,
                  0,
                  0,
                  1
                ]
              }
            },
            {
              "ty": "tr",
              "o": {
                "a": 0,
                "k": 100
              },
              "a": {
                "a": 0,
                "k": [
                  0,
                  0
                ]
              },
              "s": {
                "a": 0,
                "k": [
                  100,
                  100
                ]
              },
              "p": {
                "a": 0,
                "k": [
                  0,
                  0
                ]
              },
              "r": {
                "a": 0,
                "k": 0
              }
            }
          ]
        },
        {
          "ty": "gr",
          "nm": "Group 13 shape group",
          "it": [
            {
              "ty": "sh",
              "ks": {
                "a": 0,
                "k": {
                  "c": true,
                  "v": [
                    [
                      419.35,
                      244.662
                    ],
                    [
                      417.464,
                      257.725
                    ]
                  ],
                  "i": [
                    [
                      -6.064000000000021,
                      0
                    ],
                    [
                      0,
                      0
                    ]
                  ],
                  "o": [
                    [
                      0,
                      0
                    ],
                    [
                      -6.064999999999998,
                      0
                    ]
                  ]
                }
              }
            },
            {
              "ty": "sh",
              "ks": {
                "a": 0,
                "k": {
                  "c": true,
                  "v": [
                    [
                      516.181,
                      244.73
                    ],
                    [
                      519.685,
                      246.346
                    ],
                    [
                      517.259,
                      265.402
                    ],
                    [
                      515.44,
                      248.366
                    ],
                    [
                      516.249,
                      244.73
                    ]
                  ],
                  "i": [
                    [
                      0,
                      0
                    ],
                    [
                      -1.009999999999991,
                      -0.8079999999999927
                    ],
                    [
                      8.759999999999991,
                      -6.5989999999999895
                    ],
                    [
                      0.5389999999999873,
                      5.386999999999972
                    ],
                    [
                      -1.6850000000000591,
                      0.7400000000000091
                    ]
                  ],
                  "o": [
                    [
                      1.5499999999999545,
                      -0.6739999999999782
                    ],
                    [
                      6.941000000000031,
                      5.520999999999987
                    ],
                    [
                      -0.6730000000000018,
                      -6.262999999999977
                    ],
                    [
                      -0.1350000000001046,
                      -1.2800000000000011
                    ],
                    [
                      0,
                      0
                    ]
                  ]
                }
              }
            },
            {
              "ty": "sh",
              "ks": {
                "a": 0,
                "k": {
                  "c": true,
                  "v": [
                    [
                      528.243,
                      299.002
                    ],
                    [
                      514.227,
                      292.875
                    ],
                    [
                      515.507,
                      281.495
                    ],
                    [
                      528.782,
                      265.671
                    ],
                    [
                      515.844,
                      233.956
                    ],
                    [
                      508.567,
                      242.777
                    ],
                    [
                      510.588,
                      273.684
                    ],
                    [
                      510.791,
                      301.83
                    ],
                    [
                      513.284,
                      307.486
                    ],
                    [
                      516.114,
                      414.954
                    ],
                    [
                      503.378,
                      423.573
                    ],
                    [
                      486.398,
                      413.136
                    ],
                    [
                      472.853,
                      318.058
                    ],
                    [
                      462.139,
                      310.112
                    ],
                    [
                      451.964,
                      319.809
                    ],
                    [
                      437.544,
                      416.301
                    ],
                    [
                      425.011,
                      424.583
                    ],
                    [
                      418.744,
                      424.246
                    ],
                    [
                      409.175,
                      414.348
                    ],
                    [
                      413.016,
                      318.933
                    ],
                    [
                      420.766,
                      304.052
                    ],
                    [
                      427.504,
                      283.515
                    ],
                    [
                      423.326,
                      261.361
                    ],
                    [
                      425.617,
                      246.278
                    ],
                    [
                      420.361,
                      236.245
                    ],
                    [
                      409.108,
                      240.622
                    ],
                    [
                      411.601,
                      267.287
                    ],
                    [
                      420.563,
                      283.65
                    ],
                    [
                      418.272,
                      296.578
                    ],
                    [
                      402.976,
                      295.164
                    ],
                    [
                      385.591,
                      276.579
                    ],
                    [
                      368.543,
                      252.204
                    ],
                    [
                      373.327,
                      223.047
                    ],
                    [
                      421.102,
                      181.03
                    ],
                    [
                      435.523,
                      176.586
                    ],
                    [
                      458.77,
                      177.529
                    ],
                    [
                      478.109,
                      177.192
                    ],
                    [
                      515.036,
                      185.205
                    ],
                    [
                      541.72,
                      210.119
                    ],
                    [
                      566.382,
                      252.002
                    ],
                    [
                      528.041,
                      299.002
                    ]
                  ],
                  "i": [
                    [
                      0,
                      0
                    ],
                    [
                      3.504000000000019,
                      2.894999999999982
                    ],
                    [
                      -2.5599999999999454,
                      3.569000000000017
                    ],
                    [
                      -3.5710000000000264,
                      6.060000000000002
                    ],
                    [
                      12.197000000000003,
                      3.030000000000001
                    ],
                    [
                      -1.7520000000000095,
                      -5.7239999999999895
                    ],
                    [
                      0.8759999999999764,
                      -1.212000000000046
                    ],
                    [
                      -8.827999999999975,
                      -10.841000000000008
                    ],
                    [
                      -0.47199999999998,
                      -2.019999999999982
                    ],
                    [
                      0.40399999999999636,
                      -6.867999999999995
                    ],
                    [
                      4.246000000000038,
                      0.33700000000004593
                    ],
                    [
                      2.0879999999999654,
                      9.69599999999997
                    ],
                    [
                      3.908999999999992,
                      8.686000000000035
                    ],
                    [
                      6.064999999999998,
                      -0.47100000000000364
                    ],
                    [
                      1.281000000000006,
                      -5.3870000000000005
                    ],
                    [
                      5.189000000000021,
                      -13.736999999999966
                    ],
                    [
                      6.400999999999954,
                      0.6059999999999945
                    ],
                    [
                      2.0889999999999986,
                      0
                    ],
                    [
                      0.7419999999999618,
                      6.531999999999982
                    ],
                    [
                      1.0109999999999673,
                      22.692999999999984
                    ],
                    [
                      -6.468999999999994,
                      3.8379999999999654
                    ],
                    [
                      1.1449999999999818,
                      8.146999999999991
                    ],
                    [
                      -1.8870000000000005,
                      8.081000000000017
                    ],
                    [
                      -0.8760000000000332,
                      5.050000000000011
                    ],
                    [
                      4.650000000000034,
                      1.6159999999999854
                    ],
                    [
                      2.694999999999993,
                      -4.242000000000019
                    ],
                    [
                      -6.4010000000000105,
                      -8.82099999999997
                    ],
                    [
                      -2.5600000000000023,
                      -5.656999999999982
                    ],
                    [
                      2.829999999999984,
                      -3.8379999999999654
                    ],
                    [
                      3.774000000000001,
                      2.8950000000000387
                    ],
                    [
                      4.918999999999983,
                      7.0709999999999695
                    ],
                    [
                      5.255999999999972,
                      8.416999999999973
                    ],
                    [
                      -9.500999999999976,
                      12.659999999999997
                    ],
                    [
                      -16.846000000000004,
                      12.927999999999997
                    ],
                    [
                      -5.0540000000000305,
                      0.20199999999999818
                    ],
                    [
                      -7.748999999999967,
                      -1.5490000000000066
                    ],
                    [
                      -6.468999999999994,
                      0.3369999999999891
                    ],
                    [
                      -9.635999999999967,
                      -7.407000000000011
                    ],
                    [
                      -7.0750000000000455,
                      -9.022999999999996
                    ],
                    [
                      2.0890000000000555,
                      -8.485000000000014
                    ],
                    [
                      17.72199999999998,
                      -5.790999999999997
                    ]
                  ],
                  "o": [
                    [
                      -6.604000000000042,
                      2.894999999999982
                    ],
                    [
                      -3.4359999999999786,
                      -2.8290000000000077
                    ],
                    [
                      3.975999999999999,
                      -5.656000000000006
                    ],
                    [
                      6.40199999999993,
                      -10.705999999999989
                    ],
                    [
                      -5.256000000000029,
                      -1.2800000000000011
                    ],
                    [
                      2.694999999999993,
                      8.888000000000005
                    ],
                    [
                      -8.625,
                      11.649000000000001
                    ],
                    [
                      1.4150000000000205,
                      1.7510000000000332
                    ],
                    [
                      8.221000000000004,
                      33.803
                    ],
                    [
                      -0.2699999999999818,
                      5.2520000000000095
                    ],
                    [
                      -10.039999999999964,
                      -0.7409999999999854
                    ],
                    [
                      -4.785000000000025,
                      -22.423000000000002
                    ],
                    [
                      -2.156000000000006,
                      -4.781000000000006
                    ],
                    [
                      -6.199000000000012,
                      0.47199999999998
                    ],
                    [
                      -4.110000000000014,
                      17.843999999999994
                    ],
                    [
                      -2.358000000000004,
                      6.329000000000008
                    ],
                    [
                      -2.0889999999999986,
                      -0.20200000000005502
                    ],
                    [
                      -6.469000000000051,
                      -0.1339999999999577
                    ],
                    [
                      -2.290999999999997,
                      -21.345000000000027
                    ],
                    [
                      -0.26900000000000546,
                      -5.587999999999965
                    ],
                    [
                      7.007000000000005,
                      -4.175000000000011
                    ],
                    [
                      -1.0780000000000314,
                      -7.406999999999982
                    ],
                    [
                      1.1459999999999582,
                      -4.914999999999964
                    ],
                    [
                      0.8089999999999691,
                      -4.7809999999999775
                    ],
                    [
                      -4.783999999999992,
                      -1.6829999999999927
                    ],
                    [
                      -4.852000000000032,
                      7.541999999999973
                    ],
                    [
                      3.7060000000000173,
                      5.117000000000019
                    ],
                    [
                      2.2239999999999895,
                      4.9150000000000205
                    ],
                    [
                      -1.8190000000000168,
                      2.559000000000026
                    ],
                    [
                      -6.805999999999983,
                      -5.2520000000000095
                    ],
                    [
                      -5.593000000000018,
                      -8.146999999999991
                    ],
                    [
                      -7.682000000000016,
                      -12.456999999999994
                    ],
                    [
                      13.004999999999995,
                      -17.236999999999995
                    ],
                    [
                      4.04400000000004,
                      -3.0970000000000084
                    ],
                    [
                      7.748999999999967,
                      -0.27000000000001023
                    ],
                    [
                      6.334000000000003,
                      1.2789999999999964
                    ],
                    [
                      12.062000000000012,
                      -0.6740000000000066
                    ],
                    [
                      9.02900000000011,
                      7.002999999999986
                    ],
                    [
                      7.27699999999993,
                      9.224999999999994
                    ],
                    [
                      -3.1669999999999163,
                      12.658999999999992
                    ],
                    [
                      0,
                      0
                    ]
                  ]
                }
              }
            },
            {
              "ty": "sh",
              "ks": {
                "a": 0,
                "k": {
                  "c": true,
                  "v": [
                    [
                      361.333,
                      255.436
                    ],
                    [
                      369.554,
                      266.546
                    ],
                    [
                      371.777,
                      276.579
                    ],
                    [
                      224.476,
                      355.699
                    ],
                    [
                      163.493,
                      342.703
                    ],
                    [
                      82.9021,
                      153.018
                    ],
                    [
                      228.586,
                      69.8588
                    ],
                    [
                      379.257,
                      167.294
                    ],
                    [
                      383.704,
                      195.238
                    ],
                    [
                      381.481,
                      202.577
                    ],
                    [
                      363.489,
                      222.778
                    ],
                    [
                      361.468,
                      255.369
                    ]
                  ],
                  "i": [
                    [
                      0,
                      0
                    ],
                    [
                      -3.234999999999957,
                      -3.231999999999971
                    ],
                    [
                      1.2130000000000223,
                      -3.7030000000000314
                    ],
                    [
                      33.35500000000002,
                      1.6159999999999854
                    ],
                    [
                      19.069999999999993,
                      6.531000000000006
                    ],
                    [
                      -13.746300000000005,
                      34.678
                    ],
                    [
                      -110.91400000000002,
                      3.838099999999997
                    ],
                    [
                      -3.16700000000003,
                      -22.289000000000016
                    ],
                    [
                      -0.13400000000001455,
                      -9.62899999999999
                    ],
                    [
                      1.886000000000024,
                      -2.1539999999999964
                    ],
                    [
                      6.132000000000005,
                      -6.5989999999999895
                    ],
                    [
                      -8.019000000000005,
                      -11.177999999999997
                    ]
                  ],
                  "o": [
                    [
                      2.694999999999993,
                      3.7709999999999866
                    ],
                    [
                      3.032000000000039,
                      3.1650000000000205
                    ],
                    [
                      -34.63499999999999,
                      73.26099999999997
                    ],
                    [
                      -20.08099999999999,
                      -0.9430000000000405
                    ],
                    [
                      -111.04849999999999,
                      -44.10499999999996
                    ],
                    [
                      5.525499999999994,
                      -13.87100000000001
                    ],
                    [
                      107.54499999999996,
                      -5.4542
                    ],
                    [
                      1.3480000000000132,
                      9.292000000000002
                    ],
                    [
                      0,
                      3.164999999999992
                    ],
                    [
                      -5.9979999999999905,
                      6.734000000000009
                    ],
                    [
                      -9.230999999999995,
                      9.897999999999996
                    ],
                    [
                      0,
                      0
                    ]
                  ]
                }
              }
            },
            {
              "ty": "sh",
              "ks": {
                "a": 0,
                "k": {
                  "c": true,
                  "v": [
                    [
                      405.335,
                      346.474
                    ],
                    [
                      391.79,
                      364.183
                    ],
                    [
                      361.737,
                      389.703
                    ],
                    [
                      205.002,
                      420.543
                    ],
                    [
                      178.722,
                      415.627
                    ],
                    [
                      177.914,
                      415.358
                    ],
                    [
                      177.644,
                      415.291
                    ],
                    [
                      177.038,
                      415.156
                    ],
                    [
                      176.701,
                      415.089
                    ],
                    [
                      176.094,
                      414.954
                    ],
                    [
                      175.69,
                      414.819
                    ],
                    [
                      175.083,
                      414.685
                    ],
                    [
                      174.679,
                      414.617
                    ],
                    [
                      173.938,
                      414.415
                    ],
                    [
                      173.601,
                      414.348
                    ],
                    [
                      172.658,
                      414.146
                    ],
                    [
                      172.523,
                      414.146
                    ],
                    [
                      167.739,
                      412.934
                    ],
                    [
                      167.671,
                      412.934
                    ],
                    [
                      166.66,
                      412.665
                    ],
                    [
                      166.324,
                      412.597
                    ],
                    [
                      165.313,
                      412.328
                    ],
                    [
                      164.908,
                      412.193
                    ],
                    [
                      163.898,
                      411.924
                    ],
                    [
                      163.493,
                      411.789
                    ],
                    [
                      162.483,
                      411.52
                    ],
                    [
                      162.078,
                      411.385
                    ],
                    [
                      161,
                      411.116
                    ],
                    [
                      160.663,
                      411.049
                    ],
                    [
                      155.205,
                      409.433
                    ],
                    [
                      154.868,
                      409.365
                    ],
                    [
                      153.655,
                      408.961
                    ],
                    [
                      153.184,
                      408.827
                    ],
                    [
                      151.971,
                      408.423
                    ],
                    [
                      151.499,
                      408.288
                    ],
                    [
                      150.286,
                      407.884
                    ],
                    [
                      149.814,
                      407.682
                    ],
                    [
                      148.534,
                      407.21
                    ],
                    [
                      148.13,
                      407.076
                    ],
                    [
                      146.715,
                      406.604
                    ],
                    [
                      146.445,
                      406.537
                    ],
                    [
                      139.707,
                      403.911
                    ],
                    [
                      139.437,
                      403.776
                    ],
                    [
                      137.955,
                      403.103
                    ],
                    [
                      137.483,
                      402.901
                    ],
                    [
                      136.001,
                      402.228
                    ],
                    [
                      135.529,
                      402.026
                    ],
                    [
                      134.047,
                      401.352
                    ],
                    [
                      133.508,
                      401.15
                    ],
                    [
                      131.958,
                      400.41
                    ],
                    [
                      131.553,
                      400.208
                    ],
                    [
                      129.936,
                      399.4
                    ],
                    [
                      129.734,
                      399.332
                    ],
                    [
                      121.917,
                      395.225
                    ],
                    [
                      121.648,
                      395.09
                    ],
                    [
                      119.896,
                      394.08
                    ],
                    [
                      119.424,
                      393.811
                    ],
                    [
                      117.74,
                      392.868
                    ],
                    [
                      117.201,
                      392.531
                    ],
                    [
                      115.516,
                      391.521
                    ],
                    [
                      114.977,
                      391.185
                    ],
                    [
                      113.292,
                      390.107
                    ],
                    [
                      112.821,
                      389.838
                    ],
                    [
                      111.001,
                      388.693
                    ],
                    [
                      110.799,
                      388.558
                    ],
                    [
                      102.174,
                      382.7
                    ],
                    [
                      101.837,
                      382.498
                    ],
                    [
                      99.9503,
                      381.152
                    ],
                    [
                      99.4112,
                      380.748
                    ],
                    [
                      97.5918,
                      379.401
                    ],
                    [
                      96.9854,
                      378.929
                    ],
                    [
                      95.2334,
                      377.583
                    ],
                    [
                      94.5596,
                      377.044
                    ],
                    [
                      92.7402,
                      375.63
                    ],
                    [
                      92.1337,
                      375.159
                    ],
                    [
                      90.247,
                      373.61
                    ],
                    [
                      89.9101,
                      373.341
                    ],
                    [
                      80.948,
                      365.462
                    ],
                    [
                      80.4763,
                      364.991
                    ],
                    [
                      78.5895,
                      363.24
                    ],
                    [
                      77.8483,
                      362.567
                    ],
                    [
                      76.029,
                      360.816
                    ],
                    [
                      75.2877,
                      360.076
                    ],
                    [
                      73.4684,
                      358.325
                    ],
                    [
                      72.6598,
                      357.517
                    ],
                    [
                      70.8404,
                      355.699
                    ],
                    [
                      70.0992,
                      354.891
                    ],
                    [
                      68.2124,
                      352.938
                    ],
                    [
                      67.6733,
                      352.332
                    ],
                    [
                      39.9111,
                      318.731
                    ],
                    [
                      8.64495,
                      228.03
                    ],
                    [
                      8.77972,
                      189.245
                    ],
                    [
                      20.5719,
                      139.753
                    ],
                    [
                      83.7781,
                      51.8128
                    ],
                    [
                      216.592,
                      7.97732
                    ],
                    [
                      331.953,
                      29.9961
                    ],
                    [
                      343.004,
                      35.5849
                    ],
                    [
                      343.341,
                      35.7869
                    ],
                    [
                      345.969,
                      37.201
                    ],
                    [
                      346.171,
                      37.3357
                    ],
                    [
                      353.988,
                      41.9145
                    ],
                    [
                      354.729,
                      42.3858
                    ],
                    [
                      356.953,
                      43.7999
                    ],
                    [
                      357.829,
                      44.3386
                    ],
                    [
                      364.837,
                      49.0521
                    ],
                    [
                      365.982,
                      49.8601
                    ],
                    [
                      367.869,
                      51.2741
                    ],
                    [
                      369.217,
                      52.2842
                    ],
                    [
                      371.036,
                      53.6309
                    ],
                    [
                      372.586,
                      54.8429
                    ],
                    [
                      375.349,
                      56.9977
                    ],
                    [
                      377.101,
                      58.4117
                    ],
                    [
                      378.651,
                      59.6911
                    ],
                    [
                      380.335,
                      61.1052
                    ],
                    [
                      381.818,
                      62.3845
                    ],
                    [
                      383.839,
                      64.1353
                    ],
                    [
                      385.119,
                      65.28
                    ],
                    [
                      387.95,
                      67.8387
                    ],
                    [
                      389.162,
                      69.0508
                    ],
                    [
                      391.117,
                      70.9362
                    ],
                    [
                      392.397,
                      72.1482
                    ],
                    [
                      394.553,
                      74.3029
                    ],
                    [
                      395.564,
                      75.313
                    ],
                    [
                      398.596,
                      78.4778
                    ],
                    [
                      399.54,
                      79.4878
                    ],
                    [
                      401.763,
                      81.9119
                    ],
                    [
                      402.841,
                      83.1239
                    ],
                    [
                      404.998,
                      85.6153
                    ],
                    [
                      405.941,
                      86.6927
                    ],
                    [
                      408.973,
                      90.2615
                    ],
                    [
                      409.512,
                      90.9349
                    ],
                    [
                      412.006,
                      94.0323
                    ],
                    [
                      412.949,
                      95.2443
                    ],
                    [
                      415.105,
                      98.0051
                    ],
                    [
                      415.981,
                      99.2171
                    ],
                    [
                      418.946,
                      103.19
                    ],
                    [
                      416.386,
                      110.126
                    ],
                    [
                      420.968,
                      156.587
                    ],
                    [
                      433.973,
                      169.314
                    ],
                    [
                      431.951,
                      169.448
                    ],
                    [
                      431.345,
                      169.516
                    ],
                    [
                      429.997,
                      169.65
                    ],
                    [
                      429.323,
                      169.785
                    ],
                    [
                      428.11,
                      169.987
                    ],
                    [
                      427.504,
                      170.122
                    ],
                    [
                      426.089,
                      170.458
                    ],
                    [
                      425.752,
                      170.526
                    ],
                    [
                      424.067,
                      171.064
                    ],
                    [
                      423.596,
                      171.199
                    ],
                    [
                      422.383,
                      171.67
                    ],
                    [
                      421.844,
                      171.872
                    ],
                    [
                      420.766,
                      172.344
                    ],
                    [
                      420.226,
                      172.613
                    ],
                    [
                      419.081,
                      173.152
                    ],
                    [
                      418.677,
                      173.354
                    ],
                    [
                      417.127,
                      174.229
                    ],
                    [
                      416.925,
                      174.364
                    ],
                    [
                      415.644,
                      175.172
                    ],
                    [
                      415.173,
                      175.441
                    ],
                    [
                      414.162,
                      176.114
                    ],
                    [
                      413.69,
                      176.451
                    ],
                    [
                      412.679,
                      177.192
                    ],
                    [
                      412.275,
                      177.461
                    ],
                    [
                      409.512,
                      179.549
                    ],
                    [
                      409.243,
                      179.751
                    ],
                    [
                      408.097,
                      180.626
                    ],
                    [
                      407.76,
                      180.895
                    ],
                    [
                      406.548,
                      181.838
                    ],
                    [
                      391.453,
                      192.342
                    ],
                    [
                      358.974,
                      113.829
                    ],
                    [
                      206.484,
                      63.8659
                    ],
                    [
                      157.564,
                      74.9763
                    ],
                    [
                      69.2232,
                      249.51
                    ],
                    [
                      134.181,
                      337.787
                    ],
                    [
                      292.129,
                      355.295
                    ],
                    [
                      374.675,
                      288.902
                    ],
                    [
                      384.378,
                      287.892
                    ],
                    [
                      397.114,
                      301.426
                    ],
                    [
                      400.146,
                      303.783
                    ],
                    [
                      401.426,
                      304.726
                    ],
                    [
                      402.504,
                      305.399
                    ],
                    [
                      405.132,
                      307.015
                    ],
                    [
                      407.491,
                      310.718
                    ],
                    [
                      405.335,
                      346.676
                    ]
                  ],
                  "i": [
                    [
                      0,
                      0
                    ],
                    [
                      5.459000000000003,
                      -4.983000000000004
                    ],
                    [
                      10.108000000000004,
                      -8.416999999999973
                    ],
                    [
                      75.94200000000001,
                      11.98599999999999
                    ],
                    [
                      9.703000000000003,
                      2.9629999999999654
                    ],
                    [
                      0.26900000000000546,
                      0.1349999999999909
                    ],
                    [
                      0.06700000000000728,
                      0
                    ],
                    [
                      0.20199999999999818,
                      0
                    ],
                    [
                      0.13400000000001455,
                      0
                    ],
                    [
                      0.20199999999999818,
                      0
                    ],
                    [
                      0.1349999999999909,
                      0.06799999999998363
                    ],
                    [
                      0.20300000000000296,
                      0
                    ],
                    [
                      0.1349999999999909,
                      0
                    ],
                    [
                      0.26900000000000546,
                      0.06799999999998363
                    ],
                    [
                      0.1349999999999909,
                      0
                    ],
                    [
                      0.3370000000000175,
                      0.06700000000000728
                    ],
                    [
                      0.06700000000000728,
                      0
                    ],
                    [
                      1.7520000000000095,
                      0.4709999999999468
                    ],
                    [
                      0,
                      0
                    ],
                    [
                      0.3370000000000175,
                      0.06700000000000728
                    ],
                    [
                      0.13399999999998613,
                      0
                    ],
                    [
                      0.3370000000000175,
                      0.06700000000000728
                    ],
                    [
                      0.13500000000001933,
                      0.06800000000004047
                    ],
                    [
                      0.3370000000000175,
                      0.13500000000004775
                    ],
                    [
                      0.1349999999999909,
                      0.06800000000004047
                    ],
                    [
                      0.3369999999999891,
                      0.06700000000000728
                    ],
                    [
                      0.1349999999999909,
                      0.06799999999998363
                    ],
                    [
                      0.3369999999999891,
                      0.06700000000000728
                    ],
                    [
                      0.1349999999999909,
                      0
                    ],
                    [
                      1.8870000000000005,
                      0.6059999999999945
                    ],
                    [
                      0.1349999999999909,
                      0
                    ],
                    [
                      0.40500000000000114,
                      0.1349999999999909
                    ],
                    [
                      0.20199999999999818,
                      0.06700000000000728
                    ],
                    [
                      0.40399999999999636,
                      0.13400000000001455
                    ],
                    [
                      0.1349999999999909,
                      0
                    ],
                    [
                      0.40399999999999636,
                      0.1339999999999577
                    ],
                    [
                      0.13500000000001933,
                      0.06700000000000728
                    ],
                    [
                      0.40399999999999636,
                      0.20199999999999818
                    ],
                    [
                      0.1349999999999909,
                      0
                    ],
                    [
                      0.47100000000000364,
                      0.1349999999999909
                    ],
                    [
                      0.06800000000001205,
                      0
                    ],
                    [
                      2.290999999999997,
                      0.9429999999999836
                    ],
                    [
                      0.06799999999998363,
                      0.06799999999998363
                    ],
                    [
                      0.47199999999998,
                      0.26900000000000546
                    ],
                    [
                      0.20199999999999818,
                      0.06700000000000728
                    ],
                    [
                      0.47100000000000364,
                      0.26900000000000546
                    ],
                    [
                      0.1349999999999909,
                      0.06700000000000728
                    ],
                    [
                      0.47100000000000364,
                      0.20199999999999818
                    ],
                    [
                      0.20199999999999818,
                      0.06800000000004047
                    ],
                    [
                      0.5390000000000157,
                      0.2689999999999486
                    ],
                    [
                      0.1349999999999909,
                      0.06699999999995043
                    ],
                    [
                      0.5389999999999873,
                      0.26900000000000546
                    ],
                    [
                      0.06699999999997885,
                      0
                    ],
                    [
                      2.628,
                      1.4809999999999945
                    ],
                    [
                      0.06700000000000728,
                      0.06700000000000728
                    ],
                    [
                      0.6059999999999945,
                      0.3369999999999891
                    ],
                    [
                      0.1349999999999909,
                      0.06700000000000728
                    ],
                    [
                      0.5390000000000015,
                      0.26900000000000546
                    ],
                    [
                      0.2020000000000124,
                      0.1349999999999909
                    ],
                    [
                      0.5390000000000015,
                      0.3369999999999891
                    ],
                    [
                      0.20199999999999818,
                      0.13400000000001455
                    ],
                    [
                      0.5390000000000015,
                      0.40399999999999636
                    ],
                    [
                      0.13400000000000034,
                      0.06699999999995043
                    ],
                    [
                      0.6069999999999993,
                      0.40399999999999636
                    ],
                    [
                      0.06699999999999307,
                      0.06799999999998363
                    ],
                    [
                      2.964999999999989,
                      2.0880000000000223
                    ],
                    [
                      0.1349999999999909,
                      0.06799999999998363
                    ],
                    [
                      0.6067000000000036,
                      0.47100000000000364
                    ],
                    [
                      0.20220000000000482,
                      0.13400000000001455
                    ],
                    [
                      0.6064999999999969,
                      0.47100000000000364
                    ],
                    [
                      0.2021000000000015,
                      0.13500000000004775
                    ],
                    [
                      0.5390999999999906,
                      0.4709999999999468
                    ],
                    [
                      0.2021000000000015,
                      0.20199999999999818
                    ],
                    [
                      0.6063999999999936,
                      0.47100000000000364
                    ],
                    [
                      0.2021999999999906,
                      0.13400000000001455
                    ],
                    [
                      0.6063999999999936,
                      0.5389999999999873
                    ],
                    [
                      0.13469999999999516,
                      0.06700000000000728
                    ],
                    [
                      3.0323000000000064,
                      2.8280000000000314
                    ],
                    [
                      0.13479999999999848,
                      0.20199999999999818
                    ],
                    [
                      0.6739000000000033,
                      0.6059999999999945
                    ],
                    [
                      0.26960000000001116,
                      0.20199999999999818
                    ],
                    [
                      0.6064000000000078,
                      0.6060000000000514
                    ],
                    [
                      0.20220000000000482,
                      0.26900000000000546
                    ],
                    [
                      0.6063999999999936,
                      0.6059999999999945
                    ],
                    [
                      0.26949999999999363,
                      0.26900000000000546
                    ],
                    [
                      0.6063999999999936,
                      0.6059999999999945
                    ],
                    [
                      0.26950000000000784,
                      0.26900000000000546
                    ],
                    [
                      0.6064999999999969,
                      0.6730000000000018
                    ],
                    [
                      0.20220000000000482,
                      0.20199999999999818
                    ],
                    [
                      9.366400000000006,
                      12.92900000000003
                    ],
                    [
                      3.9082500000000007,
                      32.119
                    ],
                    [
                      -1.145529999999999,
                      12.927999999999997
                    ],
                    [
                      -7.4796,
                      15.555000000000007
                    ],
                    [
                      -27.89699999999999,
                      24.4429
                    ],
                    [
                      -70.61800000000002,
                      2.89548
                    ],
                    [
                      -48.178999999999974,
                      -22.55747
                    ],
                    [
                      -3.7060000000000173,
                      -2.019999999999996
                    ],
                    [
                      -0.13400000000001455,
                      -0.06730000000000302
                    ],
                    [
                      -0.8759999999999764,
                      -0.4714000000000027
                    ],
                    [
                      -0.06700000000000728,
                      -0.06739999999999924
                    ],
                    [
                      -2.627999999999986,
                      -1.6160999999999959
                    ],
                    [
                      -0.26900000000000546,
                      -0.2020000000000053
                    ],
                    [
                      -0.7409999999999854,
                      -0.4714000000000027
                    ],
                    [
                      -0.2699999999999818,
                      -0.13470000000000226
                    ],
                    [
                      -2.3589999999999804,
                      -1.616100000000003
                    ],
                    [
                      -0.4040000000000532,
                      -0.2693000000000012
                    ],
                    [
                      -0.6060000000000514,
                      -0.4712999999999994
                    ],
                    [
                      -0.47199999999998,
                      -0.33670000000000044
                    ],
                    [
                      -0.6059999999999945,
                      -0.4713999999999956
                    ],
                    [
                      -0.5389999999999873,
                      -0.40400000000000347
                    ],
                    [
                      -0.9440000000000168,
                      -0.7407000000000039
                    ],
                    [
                      -0.6069999999999709,
                      -0.4713000000000065
                    ],
                    [
                      -0.5400000000000205,
                      -0.40399999999999636
                    ],
                    [
                      -0.5389999999999873,
                      -0.4714000000000027
                    ],
                    [
                      -0.47199999999998,
                      -0.40400000000000347
                    ],
                    [
                      -0.6739999999999782,
                      -0.6060999999999979
                    ],
                    [
                      -0.4040000000000532,
                      -0.40399999999999636
                    ],
                    [
                      -0.9440000000000168,
                      -0.87530000000001
                    ],
                    [
                      -0.40399999999999636,
                      -0.40399999999999636
                    ],
                    [
                      -0.6070000000000277,
                      -0.6734000000000009
                    ],
                    [
                      -0.47199999999998,
                      -0.40399999999999636
                    ],
                    [
                      -0.7409999999999854,
                      -0.7406000000000006
                    ],
                    [
                      -0.33700000000004593,
                      -0.33670000000000755
                    ],
                    [
                      -1.011000000000024,
                      -1.0773999999999972
                    ],
                    [
                      -0.33700000000004593,
                      -0.33669999999999334
                    ],
                    [
                      -0.7409999999999854,
                      -0.8080000000000069
                    ],
                    [
                      -0.3369999999999891,
                      -0.4040000000000106
                    ],
                    [
                      -0.7420000000000186,
                      -0.87530000000001
                    ],
                    [
                      -0.3369999999999891,
                      -0.40399999999999636
                    ],
                    [
                      -1.009999999999991,
                      -1.2120000000000033
                    ],
                    [
                      -0.20199999999999818,
                      -0.20199999999999818
                    ],
                    [
                      -0.8089999999999691,
                      -1.0774000000000115
                    ],
                    [
                      -0.3369999999999891,
                      -0.40399999999999636
                    ],
                    [
                      -0.7410000000000423,
                      -0.9427000000000021
                    ],
                    [
                      -0.26900000000000546,
                      -0.40399999999999636
                    ],
                    [
                      -1.011000000000024,
                      -1.3469999999999942
                    ],
                    [
                      0.8079999999999927,
                      -2.6270000000000095
                    ],
                    [
                      -8.759999999999991,
                      -14.679000000000002
                    ],
                    [
                      -4.581999999999994,
                      -4.5120000000000005
                    ],
                    [
                      0.6739999999999782,
                      -0.06700000000000728
                    ],
                    [
                      0.20199999999999818,
                      0
                    ],
                    [
                      0.47199999999998,
                      -0.06700000000000728
                    ],
                    [
                      0.20199999999999818,
                      -0.06700000000000728
                    ],
                    [
                      0.4049999999999727,
                      -0.06700000000000728
                    ],
                    [
                      0.20199999999999818,
                      -0.06800000000001205
                    ],
                    [
                      0.47199999999998,
                      -0.13399999999998613
                    ],
                    [
                      0.06700000000000728,
                      0
                    ],
                    [
                      0.5389999999999873,
                      -0.20199999999999818
                    ],
                    [
                      0.13400000000001455,
                      0
                    ],
                    [
                      0.40399999999999636,
                      -0.20199999999999818
                    ],
                    [
                      0.13400000000001455,
                      -0.06700000000000728
                    ],
                    [
                      0.3359999999999559,
                      -0.1349999999999909
                    ],
                    [
                      0.20299999999997453,
                      -0.1349999999999909
                    ],
                    [
                      0.40399999999999636,
                      -0.1349999999999909
                    ],
                    [
                      0.1339999999999577,
                      -0.06800000000001205
                    ],
                    [
                      0.5389999999999873,
                      -0.3370000000000175
                    ],
                    [
                      0.06700000000000728,
                      -0.06800000000001205
                    ],
                    [
                      0.4049999999999727,
                      -0.27000000000001023
                    ],
                    [
                      0.13400000000001455,
                      -0.06700000000000728
                    ],
                    [
                      0.33700000000004593,
                      -0.20199999999999818
                    ],
                    [
                      0.1349999999999909,
                      -0.1349999999999909
                    ],
                    [
                      0.33700000000004593,
                      -0.26900000000000546
                    ],
                    [
                      0.13500000000004775,
                      -0.06700000000000728
                    ],
                    [
                      0.8759999999999764,
                      -0.6740000000000066
                    ],
                    [
                      0.06700000000000728,
                      -0.06800000000001205
                    ],
                    [
                      0.40500000000002956,
                      -0.26900000000000546
                    ],
                    [
                      0.1349999999999909,
                      -0.06700000000000728
                    ],
                    [
                      0.40399999999999636,
                      -0.26900000000000546
                    ],
                    [
                      5.5260000000000105,
                      -2.558000000000021
                    ],
                    [
                      20.283000000000015,
                      21.816999999999993
                    ],
                    [
                      102.626,
                      -10.841000000000001
                    ],
                    [
                      15.969999999999999,
                      -5.117499999999993
                    ],
                    [
                      -24.325700000000005,
                      -134.94
                    ],
                    [
                      -45.618600000000015,
                      -29.020999999999958
                    ],
                    [
                      -14.89100000000002,
                      5.185000000000002
                    ],
                    [
                      -19.069999999999993,
                      44.307000000000016
                    ],
                    [
                      -5.659999999999968,
                      -7.475000000000023
                    ],
                    [
                      -4.784999999999968,
                      -3.9049999999999727
                    ],
                    [
                      -1.011000000000024,
                      -0.7410000000000423
                    ],
                    [
                      -0.40399999999999636,
                      -0.3369999999999891
                    ],
                    [
                      -0.40399999999999636,
                      -0.20199999999999818
                    ],
                    [
                      -0.9429999999999836,
                      -0.5389999999999873
                    ],
                    [
                      0.1349999999999909,
                      -2.0200000000000387
                    ],
                    [
                      1.1450000000000387,
                      -11.918999999999983
                    ]
                  ],
                  "o": [
                    [
                      -0.8089999999999691,
                      8.34899999999999
                    ],
                    [
                      -9.703000000000031,
                      8.888000000000034
                    ],
                    [
                      -15.768000000000029,
                      13.063000000000045
                    ],
                    [
                      -9.973000000000013,
                      -1.6829999999999927
                    ],
                    [
                      -0.26900000000000546,
                      -0.06700000000000728
                    ],
                    [
                      -0.06799999999998363,
                      0
                    ],
                    [
                      -0.20199999999999818,
                      -0.06799999999998363
                    ],
                    [
                      -0.13500000000001933,
                      0
                    ],
                    [
                      -0.20300000000000296,
                      -0.06799999999998363
                    ],
                    [
                      -0.1349999999999909,
                      -0.06700000000000728
                    ],
                    [
                      -0.20199999999999818,
                      -0.06700000000000728
                    ],
                    [
                      -0.13399999999998613,
                      0
                    ],
                    [
                      -0.20199999999999818,
                      -0.06700000000000728
                    ],
                    [
                      -0.1349999999999909,
                      0
                    ],
                    [
                      -0.3369999999999891,
                      -0.06700000000000728
                    ],
                    [
                      -0.06799999999998363,
                      0
                    ],
                    [
                      -1.483000000000004,
                      -0.3369999999999891
                    ],
                    [
                      0,
                      0
                    ],
                    [
                      -0.3369999999999891,
                      -0.06700000000000728
                    ],
                    [
                      -0.13399999999998613,
                      0
                    ],
                    [
                      -0.3370000000000175,
                      -0.06700000000000728
                    ],
                    [
                      -0.1349999999999909,
                      -0.06699999999995043
                    ],
                    [
                      -0.3359999999999843,
                      -0.06700000000000728
                    ],
                    [
                      -0.1349999999999909,
                      -0.06699999999995043
                    ],
                    [
                      -0.3369999999999891,
                      -0.06700000000000728
                    ],
                    [
                      -0.1349999999999909,
                      -0.06700000000000728
                    ],
                    [
                      -0.3369999999999891,
                      -0.13400000000001455
                    ],
                    [
                      -0.06700000000000728,
                      0
                    ],
                    [
                      -1.7520000000000095,
                      -0.47199999999998
                    ],
                    [
                      -0.13500000000001933,
                      0
                    ],
                    [
                      -0.40399999999999636,
                      -0.13400000000001455
                    ],
                    [
                      -0.13400000000001455,
                      -0.06700000000000728
                    ],
                    [
                      -0.40500000000000114,
                      -0.1349999999999909
                    ],
                    [
                      -0.20199999999999818,
                      -0.06799999999998363
                    ],
                    [
                      -0.40399999999999636,
                      -0.1349999999999909
                    ],
                    [
                      -0.20199999999999818,
                      -0.06700000000000728
                    ],
                    [
                      -0.40399999999999636,
                      -0.1349999999999909
                    ],
                    [
                      -0.1349999999999909,
                      -0.06700000000000728
                    ],
                    [
                      -0.4720000000000084,
                      -0.13500000000004775
                    ],
                    [
                      -0.06800000000001205,
                      0
                    ],
                    [
                      -2.156000000000006,
                      -0.8079999999999927
                    ],
                    [
                      -0.06799999999998363,
                      0
                    ],
                    [
                      -0.47100000000000364,
                      -0.20199999999999818
                    ],
                    [
                      -0.13500000000001933,
                      -0.06700000000000728
                    ],
                    [
                      -0.4720000000000084,
                      -0.20199999999999818
                    ],
                    [
                      -0.20199999999999818,
                      -0.06799999999998363
                    ],
                    [
                      -0.4720000000000084,
                      -0.20199999999999818
                    ],
                    [
                      -0.20300000000000296,
                      -0.06699999999995043
                    ],
                    [
                      -0.4720000000000084,
                      -0.20199999999999818
                    ],
                    [
                      -0.1349999999999909,
                      -0.06800000000004047
                    ],
                    [
                      -0.5389999999999873,
                      -0.27000000000003865
                    ],
                    [
                      -0.06700000000000728,
                      -0.06799999999998363
                    ],
                    [
                      -2.561000000000007,
                      -1.2789999999999964
                    ],
                    [
                      -0.06700000000000728,
                      -0.06800000000004047
                    ],
                    [
                      -0.6069999999999993,
                      -0.3369999999999891
                    ],
                    [
                      -0.20199999999999818,
                      -0.06700000000000728
                    ],
                    [
                      -0.5390000000000015,
                      -0.3369999999999891
                    ],
                    [
                      -0.20199999999999818,
                      -0.1349999999999909
                    ],
                    [
                      -0.5389999999999873,
                      -0.33600000000001273
                    ],
                    [
                      -0.2020000000000124,
                      -0.13400000000001455
                    ],
                    [
                      -0.5390000000000015,
                      -0.3369999999999891
                    ],
                    [
                      -0.13400000000000034,
                      -0.06700000000000728
                    ],
                    [
                      -0.6069999999999993,
                      -0.40399999999999636
                    ],
                    [
                      -0.06700000000000728,
                      -0.06700000000000728
                    ],
                    [
                      -2.8300000000000125,
                      -1.8179999999999836
                    ],
                    [
                      -0.06700000000000728,
                      -0.06700000000000728
                    ],
                    [
                      -0.6060000000000088,
                      -0.47100000000000364
                    ],
                    [
                      -0.20220000000000482,
                      -0.1349999999999909
                    ],
                    [
                      -0.6063999999999936,
                      -0.47199999999998
                    ],
                    [
                      -0.2021000000000015,
                      -0.1349999999999909
                    ],
                    [
                      -0.6064999999999969,
                      -0.4709999999999468
                    ],
                    [
                      -0.20220000000000482,
                      -0.13500000000004775
                    ],
                    [
                      -0.6064999999999969,
                      -0.47100000000000364
                    ],
                    [
                      -0.20220000000000482,
                      -0.1349999999999909
                    ],
                    [
                      -0.6064000000000078,
                      -0.5389999999999873
                    ],
                    [
                      -0.06740000000000634,
                      -0.06700000000000728
                    ],
                    [
                      -2.9649,
                      -2.4920000000000186
                    ],
                    [
                      -0.13479999999999848,
                      -0.13400000000001455
                    ],
                    [
                      -0.6064999999999969,
                      -0.5389999999999873
                    ],
                    [
                      -0.2021000000000015,
                      -0.20199999999999818
                    ],
                    [
                      -0.6063999999999936,
                      -0.5389999999999873
                    ],
                    [
                      -0.26959999999999695,
                      -0.2689999999999486
                    ],
                    [
                      -0.6064000000000078,
                      -0.6070000000000277
                    ],
                    [
                      -0.26959999999999695,
                      -0.2699999999999818
                    ],
                    [
                      -0.6065000000000111,
                      -0.6059999999999945
                    ],
                    [
                      -0.26959999999999695,
                      -0.27000000000003865
                    ],
                    [
                      -0.6064999999999969,
                      -0.674000000000035
                    ],
                    [
                      -0.2021000000000015,
                      -0.20199999999999818
                    ],
                    [
                      -9.096799999999995,
                      -9.562000000000012
                    ],
                    [
                      -18.193699999999996,
                      -26.798999999999978
                    ],
                    [
                      -1.54983,
                      -12.794000000000011
                    ],
                    [
                      1.5497800000000002,
                      -17.036
                    ],
                    [
                      15.700499999999998,
                      -33.06199999999998
                    ],
                    [
                      10.98360000000001,
                      -9.629000000000005
                    ],
                    [
                      21.427999999999997,
                      -0.7406999999999995
                    ],
                    [
                      3.63900000000001,
                      1.750700000000002
                    ],
                    [
                      0.06799999999998363,
                      0.06739999999999924
                    ],
                    [
                      0.8759999999999764,
                      0.4713999999999956
                    ],
                    [
                      0.06799999999998363,
                      0.06730000000000302
                    ],
                    [
                      2.627999999999986,
                      1.4814000000000007
                    ],
                    [
                      0.20199999999999818,
                      0.13470000000000226
                    ],
                    [
                      0.7410000000000423,
                      0.4713999999999956
                    ],
                    [
                      0.26900000000000546,
                      0.20199999999999818
                    ],
                    [
                      2.358000000000004,
                      1.4814000000000007
                    ],
                    [
                      0.40399999999999636,
                      0.2692999999999941
                    ],
                    [
                      0.6069999999999709,
                      0.4713999999999956
                    ],
                    [
                      0.47199999999998,
                      0.33670000000000044
                    ],
                    [
                      0.6059999999999945,
                      0.4712999999999994
                    ],
                    [
                      0.5389999999999873,
                      0.40400000000000347
                    ],
                    [
                      0.9429999999999836,
                      0.7406999999999968
                    ],
                    [
                      0.6059999999999945,
                      0.4712999999999994
                    ],
                    [
                      0.5389999999999873,
                      0.40399999999999636
                    ],
                    [
                      0.6059999999999945,
                      0.4714000000000027
                    ],
                    [
                      0.47200000000003683,
                      0.40399999999999636
                    ],
                    [
                      0.6730000000000018,
                      0.6060999999999979
                    ],
                    [
                      0.47199999999998,
                      0.40399999999999636
                    ],
                    [
                      0.94399999999996,
                      0.8752999999999957
                    ],
                    [
                      0.40399999999999636,
                      0.40399999999999636
                    ],
                    [
                      0.674000000000035,
                      0.6060000000000088
                    ],
                    [
                      0.40399999999999636,
                      0.40399999999999636
                    ],
                    [
                      0.7409999999999854,
                      0.7407000000000039
                    ],
                    [
                      0.3369999999999891,
                      0.33670000000000755
                    ],
                    [
                      1.0109999999999673,
                      1.009999999999991
                    ],
                    [
                      0.3369999999999891,
                      0.33660000000000423
                    ],
                    [
                      0.7409999999999854,
                      0.8080000000000069
                    ],
                    [
                      0.33700000000004593,
                      0.40399999999999636
                    ],
                    [
                      0.7420000000000186,
                      0.808099999999996
                    ],
                    [
                      0.3369999999999891,
                      0.33669999999999334
                    ],
                    [
                      1.011000000000024,
                      1.1447000000000003
                    ],
                    [
                      0.20199999999999818,
                      0.20199999999999818
                    ],
                    [
                      0.8090000000000259,
                      1.0100000000000051
                    ],
                    [
                      0.33700000000004593,
                      0.40399999999999636
                    ],
                    [
                      0.7409999999999854,
                      0.9427000000000021
                    ],
                    [
                      0.2699999999999818,
                      0.40399999999999636
                    ],
                    [
                      1.011000000000024,
                      1.2798999999999978
                    ],
                    [
                      0,
                      0
                    ],
                    [
                      -4.650000000000034,
                      15.620999999999995
                    ],
                    [
                      2.7620000000000005,
                      4.646000000000015
                    ],
                    [
                      -0.674000000000035,
                      0
                    ],
                    [
                      -0.20199999999999818,
                      0
                    ],
                    [
                      -0.47200000000003683,
                      0.06700000000000728
                    ],
                    [
                      -0.20199999999999818,
                      0.06799999999998363
                    ],
                    [
                      -0.40399999999999636,
                      0.06700000000000728
                    ],
                    [
                      -0.20199999999999818,
                      0.06700000000000728
                    ],
                    [
                      -0.47200000000003683,
                      0.13399999999998613
                    ],
                    [
                      -0.1349999999999909,
                      0
                    ],
                    [
                      -0.6059999999999945,
                      0.13399999999998613
                    ],
                    [
                      -0.13400000000001455,
                      0.06800000000001205
                    ],
                    [
                      -0.40500000000002956,
                      0.1349999999999909
                    ],
                    [
                      -0.20199999999999818,
                      0.06800000000001205
                    ],
                    [
                      -0.3369999999999891,
                      0.1349999999999909
                    ],
                    [
                      -0.20300000000003138,
                      0.06700000000000728
                    ],
                    [
                      -0.40399999999999636,
                      0.20199999999999818
                    ],
                    [
                      -0.1349999999999909,
                      0.06700000000000728
                    ],
                    [
                      -0.47200000000003683,
                      0.26899999999997704
                    ],
                    [
                      -0.06799999999998363,
                      0.06699999999997885
                    ],
                    [
                      -0.47200000000003683,
                      0.26900000000000546
                    ],
                    [
                      -0.13400000000001455,
                      0.06700000000000728
                    ],
                    [
                      -0.3369999999999891,
                      0.20199999999999818
                    ],
                    [
                      -0.20199999999999818,
                      0.1349999999999909
                    ],
                    [
                      -0.3369999999999891,
                      0.26900000000000546
                    ],
                    [
                      -0.1339999999999577,
                      0.06699999999997885
                    ],
                    [
                      -0.9429999999999836,
                      0.6739999999999782
                    ],
                    [
                      -0.06700000000000728,
                      0.06700000000000728
                    ],
                    [
                      -0.40399999999999636,
                      0.26900000000000546
                    ],
                    [
                      -0.1339999999999577,
                      0.06700000000000728
                    ],
                    [
                      -0.40399999999999636,
                      0.3369999999999891
                    ],
                    [
                      -4.851999999999975,
                      3.973000000000013
                    ],
                    [
                      -1.2799999999999727,
                      -16.56400000000002
                    ],
                    [
                      -13.812999999999988,
                      -13.668999999999997
                    ],
                    [
                      -16.576000000000022,
                      2.2893999999999934
                    ],
                    [
                      -10.84899999999999,
                      3.501500000000007
                    ],
                    [
                      4.1103999999999985,
                      18.585000000000036
                    ],
                    [
                      65.29499999999999,
                      40.80600000000004
                    ],
                    [
                      14.488,
                      -5.050999999999988
                    ],
                    [
                      4.043000000000006,
                      -8.282999999999959
                    ],
                    [
                      3.774000000000001,
                      5.050000000000011
                    ],
                    [
                      1.011000000000024,
                      0.8079999999999927
                    ],
                    [
                      0.47199999999998,
                      0.3369999999999891
                    ],
                    [
                      0.3369999999999891,
                      0.20199999999999818
                    ],
                    [
                      0.8759999999999764,
                      0.5389999999999873
                    ],
                    [
                      1.5500000000000114,
                      0.875
                    ],
                    [
                      -0.7409999999999854,
                      11.98599999999999
                    ],
                    [
                      0,
                      0
                    ]
                  ]
                }
              }
            },
            {
              "ty": "sh",
              "ks": {
                "a": 0,
                "k": {
                  "c": true,
                  "v": [
                    [
                      421.844,
                      126.623
                    ],
                    [
                      484.107,
                      86.0194
                    ],
                    [
                      483.77,
                      168.034
                    ],
                    [
                      438.757,
                      163.657
                    ]
                  ],
                  "i": [
                    [
                      -0.5389999999999873,
                      19.796000000000006
                    ],
                    [
                      -13.612000000000023,
                      -7.743600000000001
                    ],
                    [
                      25.06600000000003,
                      -10.50399999999999
                    ],
                    [
                      13.612000000000023,
                      9.426999999999992
                    ]
                  ],
                  "o": [
                    [
                      -0.06799999999998363,
                      -42.8257
                    ],
                    [
                      48.786,
                      27.742599999999996
                    ],
                    [
                      -15.835999999999956,
                      5.454000000000008
                    ],
                    [
                      -10.512,
                      -7.27200000000002
                    ]
                  ]
                }
              }
            },
            {
              "ty": "sh",
              "ks": {
                "a": 0,
                "k": {
                  "c": true,
                  "v": [
                    [
                      558.566,
                      218.132
                    ],
                    [
                      497.246,
                      171.536
                    ],
                    [
                      501.694,
                      165.475
                    ],
                    [
                      502.368,
                      89.5881
                    ],
                    [
                      460.926,
                      76.6597
                    ],
                    [
                      430.536,
                      90.2615
                    ],
                    [
                      419.687,
                      89.5208
                    ],
                    [
                      399.607,
                      67.6367
                    ],
                    [
                      226.161,
                      0.099044
                    ],
                    [
                      143.952,
                      13.4315
                    ],
                    [
                      26.0974,
                      112.415
                    ],
                    [
                      14.0357,
                      138.272
                    ],
                    [
                      3.32161,
                      175.98
                    ],
                    [
                      3.45638,
                      247.423
                    ],
                    [
                      13.2271,
                      282.437
                    ],
                    [
                      122.254,
                      402.295
                    ],
                    [
                      230.54,
                      430.913
                    ],
                    [
                      390.578,
                      376.303
                    ],
                    [
                      402.976,
                      365.462
                    ],
                    [
                      402.976,
                      380.142
                    ],
                    [
                      409.175,
                      429.701
                    ],
                    [
                      432.827,
                      431.451
                    ],
                    [
                      442.8,
                      422.9
                    ],
                    [
                      458.366,
                      325.33
                    ],
                    [
                      464.161,
                      319.27
                    ],
                    [
                      468.541,
                      325.6
                    ],
                    [
                      471.034,
                      346.272
                    ],
                    [
                      485.791,
                      428.421
                    ],
                    [
                      511.262,
                      430.105
                    ],
                    [
